18 -22
-20 39
14 -11
-34 24
58 -70
80 -81
-22 19
-7 2
-44 40
59 -26
54 -52
24 -1
26 -44
-50 42
3 -14
46 -75
5 -33
-7 26
-19 8
-38 16
-1 -3
-11 -6
39 -32
-26 4
-9 -8
8 25
3 -6
-2 -25
53 -53
-6 34
6 12
-26 25
31 -61
14 -19
-21 26
4 11
-36 51
20 -19
3 2
-2 12
-13 27
13 -9
19 -34
23 -18
17 -34
41 -29
3 -13
-12 12
2 -7
18 -14
-5 9
-50 42
23 -6
-26 12
34 -33
-23 12
18 -7
18 -39
-1 -6
-17 -11
23 -16
10 -10
-32 57
65 -64
16 -47
65 -96
-31 30
-48 49
46 -44
9 -16
-45 12
-51 33
-36 62
56 -50
16 -37
-40 33
31 -45
-42 41
32 -32
45 -50
23 -29
-6 -19
-6 8
-30 23
-34 21
11 -17
-18 41
-7 -13
-4 -2
-9 18
-17 29
69 -68
10 9
-23 27
32 -67
-14 19
27 1
21 -32
-28 29
-17 12
-26 38
13 -10
-34 10
12 -4
-23 46
2 -12
26 10
20 -12
6 -28
29 -52
22 -52
-32 36
-39 25
-30 15
-11 18
-23 20
21 -22
57 -60
18 -11
-5 15
3 -25
42 -17
-32 42
5 -10
1 -9
-12 -10
-1 -2
51 -66
-9 -18
28 -14
8 -27
-29 18
55 -35
30 -37
-30 9
-40 58
-57 69
66 -43
14 -7
52 -72
11 -8
-35 16
48 -31
53 -54
8 -28
7 18
-11 24
-31 29
-32 5
29 -31
27 -48
22 -34
19 -35
7 -7
-6 16
54 -42
45 -49
-12 26
10 -32
-13 37
17 -38
8 -22
-24 13
-33 49
-44 19
50 -31
-43 46
0 21
-48 52
-7 -27
80 -49
20 -36
4 -5
27 -7
16 -22
-26 49
-39 42
20 -21
0 11
-58 58
15 7
-44 16
14 -20
-22 36
-35 15
36 -27
-29 27
30 -12
11 -24
32 -14
42 -39
13 -9
42 -32
12 10
18 -31
-8 24
46 -62
34 -16
-43 51
-36 44
-53 68
45 -49
31 -42
47 -58
0 18
-32 32
-21 -9
31 -27
28 -12
-14 22
-16 26
-17 46
-15 22
14 14
29 -16
-20 14
-7 -17
-6 3
-41 63
20 -37
17 11
-8 37
2 6
-68 69
35 -43
22 -36
-36 39
-46 48
-24 27
37 -46
-15 21
-28 12
-33 33
-6 -16
-22 11
16 -15
7 3
58 -37
49 -50
-34 30
8 1
16 -12
2 -14
-24 36
26 0
-3 5
22 -7
-13 12
32 -10
59 -60
-33 34
0 32
22 -20
17 -20
15 -21
49 -42
49 -54
-20 25
-5 -9
-56 55
-15 42
-53 52
-46 36
-34 28
-49 53
-7 -12
62 -48
-50 23
-51 37
-36 33
27 -8
-35 36
9 -30
-25 15
-19 -9
-37 68
-10 -7
-12 -5
-19 7
-2 -2
15 -23
-35 19
-20 2
-11 -19
-23 34
-45 40
37 -45
-53 30
-33 43
61 -28
-28 43
5 -3
-8 39
-51 44
28 -19
-12 23
-41 35
-50 77
16 -6
27 -50
-23 2
-35 53
-31 50
-32 19
9 2
-8 21
67 -86
-48 37
31 -37
-38 30
-29 15
-56 42
1 -12
3 -16
37 -34
22 -21
-55 39
59 -31
-48 35
8 -10
26 -34
-31 0
20 -26
-24 27
26 -36
-24 41
-33 25
38 -31
-54 35
0 -11
57 -57
-3 6
-40 33
-1 -8
25 -17
-45 46
7 -21
-34 49
-12 6
-7 8
-8 -7
40 -52
-43 24
22 -6
11 17
-12 13
-8 -8
-15 7
-23 15
-9 45
29 -34
-52 31
-17 2
26 -15
-22 43
-7 2
-23 26
-49 20
20 -25
-39 44
-7 4
-10 12
-11 -1
62 -42
-20 10
-79 75
-15 6
-23 24
-31 18
17 -32
46 -64
-23 34
-10 -6
-30 4
-13 0
-34 32
-83 86
32 -36
44 -47
13 -33
-60 52
22 -48
-33 27
17 -29
48 -60
34 -17
-6 -5
-32 59
25 -3
-51 44
-18 19
-39 32
-5 16
22 -16
62 -69
-5 29
-31 29
-10 2
-12 15
-59 36
62 -43
-26 57
-10 39
-31 3
-10 28
20 16
-10 21
-5 24
-38 42
-7 20
-49 44
-30 -1
-16 47
-18 47
41 -20
-28 41
-26 26
50 -63
-38 34
-28 10
-13 38
-71 68
-31 46
-48 46
22 -7
-39 39
-3 10
57 -31
-2 27
-53 53
-55 64
-34 64
-28 45
1 27
76 -70
-39 47
43 -58
-50 70
19 -14
-43 37
-52 65
-14 3
22 -2
-5 22
-76 76
37 -14
-67 52
48 -43
37 -37
-15 21
22 -31
-58 54
-7 -7
-47 49
-15 9
-27 28
-35 38
-5 -21
38 -30
-7 7
-77 63
9 6
19 -9
-28 53
20 -20
-7 22
-21 44
-6 0
-35 34
15 -11
-32 25
26 -2
-31 0
-20 37
-33 35
-1 9
4 11
-30 15
8 -3
-50 41
-25 30
58 -52
-20 35
-30 33
-12 -6
-41 29
30 -24
-50 34
9 10
-17 13
-16 40
23 -44
-23 14
-36 51
-16 34
-14 36
-31 21
9 -6
88 -56
-34 48
60 -58
-17 40
-22 2
-26 38
-8 18
23 -3
46 -39
11 -10
-16 -3
20 -51
-40 14
19 -9
-2 -2
-24 11
10 -20
-30 26
19 -16
5 -2
-11 -4
18 -28
9 -7
-1 14
19 -24
-68 62
-24 12
33 -24
37 -41
-46 52
-1 -6
-4 -1
-54 59
-9 -15
-24 14
-39 16
3 9
26 -18
50 -66
-6 1
4 -33
22 -15
-32 12
-2 6
21 -42
5 18
2 13
6 -27
-18 -1
-25 15
-13 15
4 -13
36 -50
-22 38
4 -3
-21 24
-36 30
-76 81
45 -41
-75 69
-27 28
9 14
-24 52
36 -31
-20 5
-14 -4
11 4
18 10
-56 49
-20 22
-31 42
23 -20
-53 34
20 -21
35 -43
-40 10
17 -24
-6 -18
12 3
32 -19
-2 -2
10 -4
5 7
-12 -23
-50 25
23 -38
43 -26
12 8
-4 -14
-48 48
-4 14
6 -32
9 5
-63 44
14 -11
-39 19
-29 36
10 11
-3 -9
9 1
-64 46
17 -14
-15 26
4 10
-53 37
17 19
25 -23
-7 29
-1 -4
-9 14
-22 14
3 -12
-54 46
6 12
-22 -2
-18 -9
24 -33
-28 19
48 -63
-7 -10
-1 33
-66 35
10 -12
-44 36
-13 33
-29 23
-55 36
-3 4
-50 54
-12 38
5 -12
5 13
-48 51
-16 7
-30 8
22 -31
-53 37
14 -13
-16 7
-1 11
-22 8
-11 10
21 -16
39 -34
20 -9
-24 33
-7 3
-31 16
-41 53
16 -11
2 11
12 -21
0 13
-48 56
-29 28
8 -9
37 -33
-83 78
9 -32
-12 27
-36 45
-5 -10
-8 7
-19 30
-52 43
2 -3
13 -7
-29 38
-68 80
-8 23
-55 62
-25 15
43 -29
-2 -4
-23 5
29 -30
-20 12
15 3
-17 14
-1 2
44 -35
-43 62
10 -41
26 -38
45 -24
-91 84
-21 19
4 -12
10 9
5 26
-19 15
21 -14
-59 86
-29 25
13 -7
-5 10
-19 34
-6 16
2 25
12 -33
-70 59
48 -22
-23 56
-41 56
36 -52
7 -8
16 -12
0 -1
30 -7
-30 23
15 -8
5 -9
-6 -12
13 -1
-16 1
22 -41
31 0
-18 35
-43 34
8 -22
51 -41
-32 34
3 -17
2 -10
-66 85
43 -54
-66 81
0 11
18 -2
21 -38
13 -13
6 4
-2 -10
-10 13
3 5
-1 19
-11 -10
36 -11
1 -19
20 -27
-32 22
-25 7
6 -15
-13 6
-18 33
16 -13
38 -15
67 -53
-48 42
-43 46
25 -41
12 -12
74 -76
-25 40
-55 36
18 -31
-63 38
-18 28
19 -37
-13 5
-23 33
-6 29
29 -1
65 -72
-47 33
48 -38
2 -9
7 -8
27 -31
20 -28
23 -39
1 -16
-19 28
-33 35
-38 38
5 -17
45 -54
29 -7
4 17
-6 3
48 -33
14 12
-53 48
5 -29
9 14
4 -12
46 -65
-1 -12
-83 83
-4 -21
-47 34
-4 10
22 -36
-28 10
-24 47
33 -36
9 6
54 -59
-18 16
46 -46
39 -42
11 9
14 2
44 -51
63 -41
15 -24
40 -60
43 -65
-28 10
-5 9
-15 29
2 10
15 -33
51 -35
6 -1
34 -32
90 -65
-25 9
-3 1
19 -25
-3 -11
23 -30
38 -49
4 6
-41 39
52 -33
79 -69
41 -60
46 -29
8 -22
12 18
13 -6
32 -33
72 -62
35 -34
0 -11
-98 84
-60 44
-56 43
45 -28
26 -43
-3 -4
6 -16
54 -67
61 -37
25 -42
21 -1
6 -31
18 -13
30 -7
60 -57
8 6
-103 123
12 -30
-35 49
15 -28
26 -38
19 -28
-21 23
17 -13
7 -1
95 -76
54 -53
11 -29
23 -45
34 -31
30 -17
68 -68
12 -29
-10 37
31 -21
13 -26
-57 54
-19 -13
-49 56
-33 58
-1 -4
20 -48
35 -19
-15 16
58 -63
-2 4
-6 1
52 -54
-5 -15
37 -16
33 -35
7 -22
9 12
28 -23
2 -9
12 -13
46 -33
11 -35
4 -31
9 -11
7 -4
81 -61
9 -22
24 0
5 8
-26 41
-10 4
14 -18
44 -43
-15 13
-18 47
22 1
26 -17
39 -41
30 -31
-7 8
15 -14
-63 45
37 -52
-3 3
-67 62
-4 -23
-58 48
-40 38
4 5
21 -20
-49 44
-13 11
-43 22
-13 28
-34 22
33 -29
-18 31
-2 -15
-22 7
20 -36
7 -31
-5 25
3 -22
42 -55
-10 42
-38 33
-6 -2
-85 83
21 -5
16 -13
32 -30
25 -2
20 -14
-33 15
-28 62
-15 39
-25 7
10 7
33 -40
20 -6
-17 23
29 -2
8 -7
-2 -27
44 -39
4 -24
-22 -9
15 -20
33 -19
29 -12
19 -16
-4 -18
-15 12
-70 44
-1 -22
-12 -1
14 -23
-29 22
-17 -10
-22 -7
-33 30
-3 31
9 -29
23 -30
-1 -18
-31 23
29 -27
4 3
-109 119
44 -24
-52 69
-10 17
-35 35
-8 6
6 -12
46 -49
-14 20
-4 -12
1 -7
44 -33
9 17
-11 -7
-12 16
38 -49
14 -35
-9 22
32 -31
55 -63
-25 15
12 -5
-64 65
11 -3
10 -37
-14 9
37 -37
-25 45
-6 23
-44 37
-14 13
16 -26
-29 43
43 -28
31 -41
0 -28
-25 32
36 -13
-8 12
43 -39
-58 22
2 -6
9 11
-24 54
3 10
-5 16
14 -5
8 -8
-23 35
-20 7
24 -9
24 -46
-5 11
16 -6
-8 16
87 -85
16 3
17 -15
15 -12
-22 44
59 -61
30 -56
47 -56
-21 11
16 -29
-27 1
-6 -11
45 -51
-23 5
22 -39
16 -25
2 2
17 -33
57 -26
10 -42
-37 20
-20 7
-35 5
44 -16
26 -25
-24 19
3 26
-15 22
58 -67
-49 40
40 -46
9 -3
62 -59
22 -28
20 -11
22 -37
-2 -10
60 -62
22 -5
24 3
28 -42
-2 -3
-34 36
3 -34
27 -8
28 -22
-22 29
13 -10
15 -2
37 -18
62 -59
-22 10
39 -45
-6 -2
30 -38
1 -1
67 -49
-26 29
-2 7
7 -16
10 -11
-24 1
26 -30
-4 11
59 -52
8 21
23 -29
22 -12
-19 33
71 -36
39 -60
39 -19
-26 55
12 -44
-40 53
16 -49
46 -25
11 6
31 -30
15 -29
-14 3
36 -35
93 -64
39 -38
-12 7
-44 58
-30 9
-6 11
24 -12
-23 48
12 -22
-24 -4
22 -44
-14 13
64 -71
32 -42
48 -85
-27 10
38 -31
-3 11
68 -42
63 -56
-13 0
-3 1
17 -21
-7 19
-44 40
-7 -23
-45 54
40 -27
-33 5
32 -39
-24 18
20 -7
41 -37
-41 20
30 -49
11 -9
14 -24
-28 15
56 -46
-47 53
-22 2
59 -54
-3 22
-6 -1
-1 9
-48 34
57 -89
-2 -16
41 -56
25 -47
12 16
54 -43
41 -23
13 19
-33 21
14 8
-39 52
-24 4
50 -61
-5 -1
40 -17
9 -3
27 2
14 -2
34 -19
-1 -3
3 11
55 -74
17 1
14 12
18 3
-38 27
-3 -16
-26 32
40 -42
-22 19
22 -35
28 -34
6 -25
-17 -7
41 -32
3 -10
-20 25
49 -54
-16 1
20 -32
17 6
24 -32
-52 17
18 0
38 -24
52 -51
6 17
26 8
-11 19
35 -1
53 -32
24 -19
23 -24
-27 21
20 8
6 2
56 -45
-65 48
15 -21
22 -16
-7 -5
-2 22
35 -22
-13 26
33 -42
-11 6
-5 -14
28 -34
-20 -2
40 -44
54 -75
54 -57
-31 36
17 -18
-33 19
21 -12
64 -37
20 -11
24 -58
-22 17
-26 26
21 -37
28 -28
-3 19
-3 18
-5 -18
-22 -4
42 -24
41 -51
-32 33
13 -26
-8 -3
31 -57
-35 35
30 -49
-9 0
11 -15
-30 7
47 -47
-26 18
21 -11
25 -8
-2 20
60 -40
-11 8
14 -36
-25 39
28 -31
34 -34
23 -21
-17 15
28 -23
23 -30
18 -44
29 -37
27 -11
49 -43
14 -9
31 -30
17 -16
63 -38
-9 19
15 -12
6 -18
-30 33
-37 8
26 -13
-11 32
11 -26
5 16
13 2
-10 19
-33 24
56 -61
-21 10
13 1
2 1
-20 22
7 17
-51 66
1 -10
-7 37
40 -51
0 -18
11 -13
-59 30
-30 33
-53 49
-4 -3
-4 21
8 -29
-7 -9
28 -5
-14 38
-19 28
-49 41
-43 20
24 -30
-2 8
33 -29
-41 44
9 -25
36 -8
6 -20
-13 -11
-24 18
0 16
-31 23
-55 40
55 -41
-45 16
5 -12
-18 33
-26 37
-33 34
40 -66
52 -43
68 -65
13 -17
-47 69
41 -52
-13 17
-7 5
17 -16
81 -85
31 -29
-14 -3
-14 18
-48 69
-4 -6
-4 9
15 -11
38 -58
-8 -3
-28 50
-42 34
4 -10
48 -47
-15 16
26 -25
-11 29
-29 61
-18 19
-15 -17
12 -11
-44 24
45 -30
43 -40
11 -14
-29 20
-7 -7
-42 35
-18 3
33 -26
14 -10
-32 36
50 -34
-22 29
-23 17
-29 9
-4 19
18 -33
1 10
43 -35
-41 49
57 -54
18 -14
-18 -5
3 14
-16 32
15 -2
-14 -10
-40 11
75 -62
-18 28
11 -43
-76 77
-27 27
-12 33
39 -36
19 -33
104 -89
6 -33
-86 96
17 4
-48 27
25 -12
5 -28
102 -116
-6 20
3 -15
-28 34
24 -2
-44 21
32 -20
-7 7
45 -75
0 -14
32 -32
-33 26
-3 -4
60 -64
6 11
22 -6
1 10
-46 31
-19 -5
-34 11
1 -6
8 -25
32 -36
-22 35
-27 31
2 -2
-6 14
-30 13
-18 8
1 23
23 -21
39 -9
45 -30
-36 14
-9 17
-9 11
-27 48
37 -61
-21 -10
43 -31
-5 42
68 -57
17 0
-5 35
-15 -3
-17 7
-16 27
-12 31
4 4
42 -30
-45 52
49 -23
-77 76
2 -9
-23 33
-4 -12
16 -30
70 -54
39 -27
-39 57
15 -10
-62 62
1 -8
27 -23
105 -121
-20 14
-5 21
-18 17
-36 21
-10 24
-17 21
15 -12
66 -86
27 -6
3 -16
-19 22
21 -36
57 -48
-26 17
20 -42
-23 25
4 3
-57 29
13 -9
27 -29
-1 0
37 -41
-5 28
-2 8
-35 15
4 9
-6 15
-20 0
21 -28
0 -6
-28 11
53 -25
-8 5
-10 28
-29 3
1 15
45 -16
3 -8
22 12
-66 53
35 -39
20 -20
-3 -10
-29 35
-24 32
6 22
12 -37
-20 13
56 -42
-46 32
38 -32
-46 14
-14 6
-21 5
-2 -33
58 -34
69 -83
44 -31
-58 46
24 -23
-22 14
6 -9
-12 27
10 -17
24 -18
-18 9
66 -64
-6 25
-1 18
44 -62
-12 4
16 -7
-62 43
10 -15
-64 45
-15 7
10 -7
-7 29
-33 4
-11 24
-75 54
-21 -8
13 -18
-60 30
-90 88
-13 20
-5 -17
-5 -3
-34 33
-39 51
-62 70
-2 -7
-42 40
-1 12
-53 54
-19 4
-17 28
-22 14
33 -15
6 -9
64 -73
5 -20
53 -45
45 -56
-45 59
-52 49
1 20
-19 46
-20 14
-41 31
16 12
-42 27
14 -11
-4 -9
-25 36
-65 55
-98 87
-1 -14
-30 33
22 -24
-25 32
10 -13
-64 80
26 -35
-32 42
-44 55
-8 34
-38 7
37 -42
-34 21
26 -3
-53 59
-4 5
12 -11
17 6
0 -2
-34 16
-28 19
-21 47
9 -24
3 5
-33 48
-8 22
-33 25
-70 58
-35 31
-1 -6
-29 8
-63 70
-12 -4
4 -14
3 -13
0 -8
-31 32
-70 46
6 -3
-38 45
-34 39
-36 27
5 5
-33 34
-18 17
11 11
-33 4
66 -53
-44 28
14 14
-23 29
-61 56
21 -13
16 -22
-45 46
-20 2
-30 0
-59 81
-96 72
-23 -12
-29 32
12 1
0 21
-26 26
-33 5
9 6
-3 -18
-5 -1
1 -8
-6 10
41 -30
-63 30
-20 2
-4 4
1 3
46 -18
-45 35
50 -35
-72 65
-16 -4
45 -42
-20 -3
-35 36
-15 15
-6 7
-48 29
14 -18
14 -8
-12 11
4 -13
-33 34
-42 55
-29 29
25 -7
0 -31
-64 57
6 -20
-23 -2
-17 -9
-7 0
-22 27
-39 22
16 -7
-12 34
9 -21
-28 12
-4 9
-14 32
-8 -13
31 -12
16 -42
75 -80
1 19
36 -33
-14 22
-28 14
14 16
-24 2
-16 27
6 -3
0 -6
-5 2
-63 54
-8 4
-18 -5
-9 -21
13 -1
-58 42
12 13
-48 46
14 -4
-35 45
11 -13
-9 3
21 -24
-15 2
-26 13
-11 -12
-50 59
21 -46
-6 15
2 6
-46 45
-2 15
-3 -25
-18 20
-5 9
-15 6
14 -3
-52 75
-6 -8
15 9
-18 8
7 3
-16 24
13 -18
2 -17
21 -24
-21 7
-52 55
11 7
5 -7
10 -26
-52 21
-38 34
-31 35
-18 -18
-20 28
-7 -7
-25 22
6 -9
-12 13
13 -5
-13 -18
-27 34
53 -59
-4 12
36 -43
61 -67
-44 59
-26 -2
-25 34
30 -3
-62 69
-16 2
22 -6
-2 5
-3 17
-14 0
2 -13
-32 26
-60 51
-13 24
36 -17
61 -32
-29 53
-1 8
-30 25
0 -19
-6 -2
-42 20
-14 17
29 -32
36 -27
-61 53
-4 27
-31 35
-27 1
-17 47
-33 11
-6 -17
28 -28
0 12
-38 51
0 1
-28 10
10 -2
1 0
-21 20
-52 50
12 -28
13 1
-38 45
3 11
-40 19
-9 18
-33 35
51 -58
-36 47
-42 26
4 -11
6 28
10 -14
-48 55
8 -4
-18 -3
-12 13
-10 7
17 -29
23 6
19 -26
-19 20
-13 40
-33 19
-46 61
-14 -5
50 -33
3 -19
-31 51
-33 12
-56 64
-40 37
-17 23
-14 12
-17 33
-33 10
-7 11
-4 -2
10 -12
-15 26
-16 18
-60 67
-23 32
-10 11
25 -38
-34 21
29 -23
24 7
-5 37
-13 49
-19 51
-6 0
-20 4
-18 36
28 -24
-33 36
27 -15
-1 12
8 1
11 10
8 3
-6 3
-21 24
-64 69
11 5
-34 43
-5 -14
-44 49
-1 -20
-36 20
20 8
0 -25
-31 36
-62 70
33 -8
30 -30
14 -29
-32 55
-17 -4
0 -7
-16 12
21 -13
38 -28
75 -69
35 -42
-62 35
-81 53
-27 -8
-25 20
16 15
32 -12
-19 16
-27 22
12 -9
-33 20
-17 20
-5 9
-26 5
12 -34
-18 37
16 -3
-48 33
11 -18
30 -12
15 -14
19 -45
11 -14
-12 -7
-2 -3
15 -37
-11 -14
22 -31
-5 22
-8 -1
-25 40
-26 0
3 4
-20 -14
59 -69
29 -31
-38 24
7 -9
-3 -6
56 -47
4 -22
14 -10
9 -4
-60 66
48 -40
-29 25
37 -25
46 -26
36 -12
-8 12
5 7
-7 11
28 -6
-13 10
14 17
18 -13
-17 -14
2 20
-5 4
5 1
-26 8
-8 25
9 -26
-25 43
-8 22
-28 48
11 -27
14 -12
-36 32
16 -10
52 -60
-2 -2
-22 11
6 -8
6 20
-38 54
-5 24
-5 22
47 -32
20 1
-13 13
-30 15
44 -43
-47 37
19 -44
-5 -9
-4 -9
7 -2
23 -31
-26 35
13 7
-16 23
-37 17
-7 15
-47 33
8 1
-16 33
-17 23
37 -51
-16 17
-28 9
-18 24
29 -10
10 -6
14 -7
-16 -20
-12 14
-52 27
-26 -3
-49 45
11 -19
-30 47
-3 -19
20 -5
-2 -1
48 -45
-23 -1
-21 50
12 -10
-10 37
2 3
-73 48
-9 7
-15 0
-10 25
-22 8
-1 13
0 23
-40 24
-47 48
-25 27
-10 2
-76 57
5 -5
24 -1
4 -27
-7 -13
-41 26
-82 87
-38 32
2 10
-28 10
-6 1
-25 50
-1 14
-21 -8
9 -4
-63 39
7 -25
-74 68
-68 57
-17 26
-27 40
-6 3
-8 0
-49 33
-37 36
-70 68
0 19
8 -17
-21 27
-15 29
12 -1
-17 5
-4 -20
9 -12
-40 39
3 -7
21 -24
32 -45
12 -5
-37 41
6 6
-28 30
57 -52
-37 29
-5 26
-41 19
27 -21
16 -6
-25 14
28 -25
-5 0
8 -25
-20 51
26 -34
14 -18
7 22
-23 36
-8 10
19 2
-47 60
34 -13
-28 1
8 -23
57 -34
19 -38
-16 1
-13 3
31 -6
7 -3
16 -5
37 -38
54 -38
9 6
15 -16
-8 -18
34 -56
-6 3
18 -19
-11 -6
44 -66
-16 -5
6 -5
-22 2
18 -13
7 -28
19 -20
-37 37
-34 57
-39 34
-11 16
-5 -12
4 9
-20 20
-8 25
13 0
1 25
17 15
-4 -22
-7 22
13 13
38 -14
11 -40
-1 -7
-22 15
7 -20
-21 12
11 -25
-15 30
-10 -10
-12 -17
14 6
25 -9
1 -10
11 17
-7 0
-13 4
-1 20
5 10
26 -25
-6 -1
-13 26
-26 6
-5 -26
-61 31
41 -10
-1 28
2 -3
-9 -16
39 -26
-10 5
-15 -7
5 -6
-2 10
-32 22
30 -36
57 -48
-21 22
12 -23
-26 8
-8 7
-25 17
5 -3
16 -7
74 -54
2 -15
-19 35
24 -18
1 -4
2 -27
0 21
20 -28
12 13
11 -7
-29 19
0 -8
20 14
37 -38
-33 10
20 -33
-18 -13
30 -29
-14 31
-20 15
0 20
18 -7
15 17
-35 28
-8 4
13 16
-12 -10
-19 -9
-19 32
2 -4
28 -12
8 -1
2 3
-26 23
-30 33
9 -14
-27 27
-38 36
8 0
-24 -9
-9 -10
35 -19
-16 6
-25 28
-52 21
-2 4
-17 31
34 -13
-20 -8
76 -68
1 20
-12 7
5 5
-5 2
-17 49
36 -5
86 -54
-18 35
14 -4
-16 -20
-27 6
-21 15
-5 18
29 -13
76 -91
-23 18
-20 24
-11 8
-33 13
-13 -1
-17 -3
-7 3
-22 33
-27 30
-19 29
6 14
-6 16
-50 26
-33 11
12 10
-3 17
-25 22
0 13
-19 6
1 18
5 -10
16 -24
1 -5
-16 23
-43 34
20 -12
32 -55
-33 28
-24 1
16 -17
4 21
-11 7
4 -19
-3 16
-3 6
1 5
-31 26
17 -40
38 -35
-11 4
-2 -8
12 -14
-9 -20
-16 -10
-22 2
-35 6
23 -30
-21 14
56 -65
-20 3
-23 17
41 -34
-34 26
5 8
31 -41
68 -63
-21 28
-1 -15
-68 44
33 -36
3 -3
-26 28
-2 1
45 -39
-15 8
1 -10
8 -12
-34 15
32 -13
13 -23
2 -34
2 -3
-39 36
9 -8
20 -34
24 -13
-2 -16
-4 37
1 -2
14 -5
13 -37
6 -16
12 5
-13 20
-13 12
-2 -19
25 -29
-18 12
14 -5
-3 -18
25 -7
-33 18
-48 31
-12 22
31 -10
4 -1
-24 7
19 -16
15 -44
-22 10
44 -36
12 13
6 -31
19 -36
13 16
42 -41
-46 21
-16 22
-3 10
20 -29
-15 19
29 0
31 -24
18 -15
-12 12
-9 15
-22 22
-5 -9
22 -27
20 -21
13 9
5 -13
-16 19
12 -20
24 -3
8 -15
8 15
30 -19
-1 10
-23 12
33 -35
13 0
0 -2
15 -25
-22 27
5 1
-16 27
11 -13
-42 14
20 -6
13 -18
-27 37
12 -4
28 -15
-44 28
-5 0
4 5
9 -14
-30 20
18 -21
-3 -5
-23 23
-16 -1
-29 17
4 -25
-40 47
3 13
-30 54
3 -18
21 4
-28 6
-23 41
13 -9
-35 27
25 -32
-43 38
42 -27
6 -4
11 -17
25 -22
-12 5
8 -27
37 -28
3 21
26 -33
-32 62
50 -52
27 -31
23 -17
-28 18
-2 -17
2 3
24 -11
30 -30
20 -20
6 -28
-12 13
-7 10
-9 -15
6 -9
8 5
28 -16
15 -5
-20 26
32 -25
10 -8
55 -48
2 -15
-9 31
13 -7
-15 44
-38 42
-8 27
14 11
-20 -13
-13 11
-6 -21
15 -18
12 17
-33 8
13 1
-4 14
-26 30
17 -20
-12 10
-34 34
-57 49
-49 60
17 -42
-40 28
-9 11
-21 -8
-5 14
38 -42
-32 13
6 29
8 -12
12 -31
-8 32
14 -3
22 -43
20 0
-10 3
-11 -24
-17 -18
7 -11
-38 14
1 -1
16 12
-32 29
37 -41
25 -43
-23 34
-24 22
15 10
-35 36
-28 21
92 -66
-9 8
14 -25
-13 2
3 -19
3 9
-46 39
7 4
37 -38
-31 6
-12 18
27 -54
-25 27
24 -36
2 -21
4 11
16 -29
8 -4
-14 31
-1 -11
0 8
-60 44
-14 -9
-8 16
26 -6
-21 13
-68 65
39 -44
-3 -3
-45 49
25 -30
-6 20
-25 33
-21 37
-10 0
47 -26
-20 24
-38 27
-39 38
15 -10
-2 -11
-55 57
30 -29
1 -23
-49 44
2 -14
16 -19
9 -23
7 -17
-2 25
30 -43
-21 15
47 -46
-9 12
15 1
35 -25
-20 10
44 -58
26 -23
-15 22
-26 -8
16 -49
23 -39
23 -15
78 -52
15 -27
24 -22
-5 -12
5 4
-5 -19
-21 11
14 -16
23 -40
-12 23
-31 19
32 -44
-3 12
29 5
-20 -5
1 4
-1 28
-31 8
27 -38
28 -54
26 -18
-14 -8
-9 32
35 -16
-18 36
19 -15
34 -22
-1 -14
15 -29
-26 25
2 2
-31 17
-47 28
-7 40
-3 7
36 -14
-30 4
27 -8
24 -23
3 8
52 -39
-49 19
-21 23
2 3
-43 31
14 -27
30 -22
19 -20
13 3
6 17
17 -4
37 -14
26 -20
-15 40
45 -43
12 4
-7 -19
22 -20
10 -11
14 -9
10 -4
2 -7
-3 -4
8 -8
9 2
13 1
21 -22
40 -44
-4 -13
5 -5
21 -2
12 -20
22 -26
20 -29
-25 35
-23 -3
62 -47
-13 -2
37 -58
24 -18
5 12
15 -2
24 -28
-34 44
-12 7
26 -32
-13 6
8 -7
15 -7
-3 -1
39 -57
34 -27
22 -38
14 -16
21 -23
4 3
-1 1
-28 7
-9 15
28 -52
49 -42
22 -29
-22 13
15 -8
83 -74
9 -16
-10 1
8 -23
9 -8
28 -27
5 -18
26 -44
-11 -18
6 -16
19 -20
-5 2
20 -38
-8 7
28 -53
23 -26
-48 24
-6 8
34 -46
57 -48
-9 8
23 -23
22 -40
64 -36
-39 22
13 15
14 -26
34 -11
17 -14
11 -12
60 -48
10 -8
-12 5
37 -28
34 -45
-25 9
58 -71
15 -14
21 -16
17 -24
33 -18
-19 9
29 -39
1 -18
15 -8
6 18
7 -24
46 -64
38 -10
-11 11
-22 -4
21 -10
43 -36
10 -20
22 -48
4 -8
-66 41
26 7
1 19
26 6
25 -19
27 -39
40 -34
27 -14
2 -20
19 -28
12 -5
14 -4
34 -17
-5 -6
41 -24
59 -45
13 -6
12 -12
21 -21
-1 -13
4 -23
49 -31
-18 26
16 -2
-6 11
-11 -5
16 1
-6 21
21 -11
10 -11
6 -4
4 -18
41 -32
4 -1
22 -26
-12 20
11 -11
9 -14
41 -27
4 12
7 -27
44 -30
8 -6
-43 14
-5 -12
20 -45
4 -14
-24 5
5 -10
-51 26
41 -25
42 -56
10 -5
16 9
-23 34
51 -39
22 -12
56 -62
11 -29
9 18
54 -46
40 -38
29 -41
-12 -12
-65 73
-39 30
-1 5
-9 6
17 0
18 -22
-52 37
13 1
25 -29
27 -36
21 -3
8 -13
84 -77
31 -15
14 -27
43 -50
-3 13
-15 15
4 -6
26 -20
25 -23
5 15
22 -42
-1 6
-55 46
-30 35
-2 20
47 -31
52 -61
-9 2
14 -41
-21 -11
-7 21
-12 -13
20 -3
17 -14
6 8
-9 -12
19 -37
-25 7
-5 -6
24 -25
31 -29
-15 18
17 -49
43 -29
-35 22
14 -4
17 -37
-24 33
28 -30
15 -6
-46 46
-30 30
-18 29
28 -54
-40 43
-19 10
46 -29
-17 41
-16 12
47 -47
-19 18
-48 31
-47 38
-4 3
-24 30
31 -17
-21 18
-14 -4
-12 26
-32 27
-31 19
-7 15
8 11
-60 41
-22 37
-30 16
17 -31
-28 16
-58 41
-34 39
-45 42
-11 -13
8 -24
11 4
11 -17
4 -20
42 -21
12 6
-34 36
-14 25
-19 17
-21 25
22 5
8 -1
-4 -6
-75 41
-22 36
-7 35
26 -28
-51 60
-18 11
40 -45
19 -24
11 -2
-22 -1
11 -14
-2 21
-13 3
-17 27
36 0
-9 3
16 -22
12 -4
53 -49
-14 20
-44 43
2 31
28 -34
-27 10
20 -19
38 -49
-13 7
19 -4
27 -21
-21 18
-12 39
-60 70
-30 0
-13 26
49 -43
-26 11
16 -13
-13 21
-1 5
18 -13
-29 4
-4 -10
-31 -1
-14 23
2 -14
60 -64
-18 10
-42 34
-20 22
1 15
17 -41
-15 6
-14 31
-11 6
18 -11
14 -13
62 -37
6 25
-28 15
11 -19
-39 28
-19 -2
14 -28
35 -37
-14 14
-14 -10
43 -41
37 -50
-19 34
-33 26
12 -22
58 -62
1 -21
36 -56
48 -26
-16 20
-5 30
7 11
-22 32
-25 27
-35 35
17 6
31 -33
-27 47
-68 63
-23 19
21 -17
6 6
11 14
64 -39
-41 50
-5 3
42 -38
-25 7
-28 13
-72 63
-8 15
-43 38
35 -41
5 -17
31 -11
7 0
-33 49
-12 -12
-4 2
-1 -18
-48 48
1 -15
11 0
94 -73
-8 7
-52 69
-23 36
-57 57
38 -33
-46 34
-7 22
-62 43
19 -44
-3 -23
-5 -3
-49 35
43 -49
35 -14
10 19
8 -4
19 -24
11 13
-40 33
-21 31
64 -49
70 -62
-68 56
-10 4
-15 20
16 -8
20 -9
75 -80
-65 59
-23 21
5 -26
-17 6
6 15
-20 20
15 -2
-16 4
-8 3
-9 -2
-20 16
-6 -9
105 -97
-17 28
-8 11
27 -1
-25 23
89 -76
25 -42
-44 46
-2 5
-68 59
3 -19
-61 61
80 -87
21 -16
58 -77
-10 -3
-4 5
2 -3
-28 3
-34 45
-40 22
-14 41
38 -23
5 -16
-20 19
-57 31
-49 42
-6 9
69 -43
-30 28
-11 20
-38 53
45 -11
-30 31
-7 -22
-10 9
39 -23
-10 13
-20 40
-20 43
27 -24
7 -26
-21 39
-25 40
17 -40
44 -26
-36 31
-21 13
8 -6
-30 16
57 -66
15 -5
4 -23
-17 1
-16 5
-13 13
-17 37
-23 31
-11 18
7 -24
3 -17
-20 25
14 -17
-10 0
9 -23
-35 17
28 -37
-11 -4
-8 30
41 -27
-52 65
-1 1
-42 54
4 -9
-32 30
-3 -4
4 0
-11 9
22 -14
-10 -1
-21 16
-29 32
6 -15
-7 -13
-17 22
-20 22
-2 -6
1 1
-11 2
-29 47
-23 4
-31 14
-20 -13
13 6
-3 8
20 -1
27 -2
-32 9
16 -31
-21 17
16 -19
40 -44
-16 22
8 -22
-7 -4
-7 -3
-41 55
5 9
7 -24
-36 46
-15 23
-15 12
-38 70
51 -37
41 -39
-11 23
-40 20
4 -16
33 -19
-6 2
-6 -16
-50 58
-56 55
33 -6
69 -82
-14 9
-23 11
-29 36
-1 7
-34 14
-23 11
18 -39
-19 13
-29 30
-38 34
30 -36
-49 47
-15 23
21 -19
8 -5
-15 17
-21 6
-37 45
43 -34
-14 18
-48 35
-28 18
64 -70
-3 29
24 -14
-18 24
-20 15
28 -14
-3 -1
-21 7
-29 31
-40 34
-20 22
-10 43
-21 39
36 -13
13 14
1 -25
-32 25
-11 7
35 -19
-22 18
-4 17
39 -46
35 -26
-19 20
27 -11
1 16
-5 23
-20 0
31 -23
-87 88
23 0
-29 15
8 5
-40 33
7 0
16 -39
1 9
-16 17
-79 51
-3 8
-2 -25
-25 51
-11 -21
-5 -4
12 17
28 -25
-3 22
4 15
-76 66
-1 -1
-10 5
30 -17
5 -9
-21 31
-10 13
5 22
12 14
48 -50
48 -36
-34 9
-27 30
0 13
5 -15
34 -43
-49 51
-11 -6
5 -25
-13 4
-32 10
1 -32
2 8
-12 -10
-13 20
28 -20
-28 29
-1 -2
-12 5
34 -66
23 -38
20 -34
11 -1
15 -3
-13 2
-13 25
18 -15
2 -9
12 -2
-11 6
-15 6
-21 31
-16 14
8 11
-39 24
-13 15
-24 14
-3 10
-15 5
-25 29
-12 12
18 -20
-50 44
-15 9
-49 72
-52 25
-31 31
27 2
13 -13
-32 44
-50 18
15 -32
-59 58
6 -30
-12 7
-2 10
-8 -6
-26 46
7 -5
-47 47
-10 15
-68 44
15 -9
-27 19
-37 26
-13 28
14 -16
-7 4
3 -6
-4 27
9 24
1 18
16 7
-79 47
-6 -7
21 2
2 9
-34 27
-20 11
-28 7
-48 73
-46 46
-40 45
-27 10
-13 1
-9 2
9 -24
-26 36
-10 10
-65 77
-6 9
-11 18
-10 11
-18 17
-10 2
3 -2
-15 2
-9 23
-26 40
-33 14
9 -10
-11 24
-8 7
-48 26
-51 16
-9 9
-17 12
7 -9
-22 26
-24 26
6 -9
67 -78
-14 -1
-23 27
0 13
31 -24
8 26
43 -45
68 -77
-16 35
2 -14
31 -48
-29 18
-36 38
69 -68
-56 31
10 -39
-3 7
-38 27
6 -14
-58 74
-25 48
11 -11
4 -7
32 -24
-17 49
-4 -26
-22 18
64 -89
0 0
-57 38
-22 6
-17 9
11 -10
7 -8
26 -12
-26 10
11 -1
12 -10
71 -67
-26 7
0 -19
21 -1
1 12
-35 40
2 -26
102 -88
-34 27
-30 27
33 -13
86 -65
-44 23
7 7
13 -6
99 -130
-13 2
45 -42
42 -29
-22 42
-35 41
-22 29
41 -70
-38 36
-3 -9
-53 39
-21 37
-40 30
-8 9
-26 33
22 -50
-10 2
-31 32
25 3
-54 55
-14 16
27 -27
-36 30
-50 36
23 -22
6 -9
-5 10
-4 -20
32 -37
7 2
-2 8
-36 27
-35 21
-3 -1
3 10
-55 31
-22 54
-9 -3
10 2
3 6
-51 30
-8 8
-41 51
-7 -19
9 -9
30 -33
-21 -3
-39 32
6 25
59 -38
-2 20
-41 10
-22 39
9 -10
14 -26
0 15
28 -29
-51 48
-10 42
-7 2
59 -58
-55 46
-57 29
32 -10
35 -31
18 -17
7 -21
41 -29
19 -16
4 -16
-2 -4
57 -71
49 -54
-13 15
58 -75
13 -9
-56 58
8 -5
-24 14
27 -25
-18 5
-1 -28
6 -10
-66 43
10 20
18 -27
-18 -4
-38 34
-21 -1
2 5
-39 38
43 -25
18 -23
11 -24
6 -10
-41 55
-2 -4
8 2
3 -3
-44 65
-24 27
-34 12
13 -1
-6 30
-72 70
-30 60
-62 33
54 -54
34 -21
-5 0
29 -1
-21 -4
22 -3
80 -65
-14 24
78 -84
-33 37
-33 45
10 -7
-3 20
46 -34
-55 88
-18 29
18 -44
1 13
-63 54
28 -26
19 -27
82 -58
3 -4
59 -35
66 -65
-34 55
1 -17
23 -33
26 -16
-18 20
-3 2
-23 44
-8 36
-72 48
-40 37
6 -3
34 -51
38 -48
-10 30
-25 37
-66 45
-24 52
60 -64
-18 6
-34 50
19 -24
-29 30
7 23
49 -33
5 -36
-14 30
21 -3
-56 36
55 -56
60 -68
1 -10
-50 67
82 -59
-28 34
6 6
29 -34
-60 43
14 1
-29 48
18 -32
28 -31
10 -12
10 -28
28 7
61 -51
58 -78
-1 -4
12 -15
-38 25
-26 19
-15 -13
3 -7
45 -43
-49 59
-9 -9
-45 20
21 -26
-33 34
3 -9
36 -49
46 -30
-51 54
-6 -4
63 -41
-88 75
-7 -5
40 -36
17 -5
1 4
5 17
31 2
6 0
33 -43
23 -20
11 -8
-19 8
29 -22
2 -1
1 -23
50 -69
11 5
1 2
76 -62
17 -33
-47 44
11 -16
42 -24
16 -14
-15 -1
-25 24
29 -34
24 -42
3 -1
32 -62
14 -17
34 -26
14 -13
11 -30
-12 2
78 -86
34 -42
11 -10
33 -29
4 20
-22 0
16 -11
24 -20
-6 -9
63 -40
-15 4
16 -13
-1 10
36 -52
18 -9
7 -2
29 -4
1 4
27 -11
60 -90
-5 21
-11 20
27 -27
22 -13
-16 16
21 8
-5 -12
-28 19
-40 33
79 -60
38 -35
16 -22
12 -17
-3 1
-1 -26
-39 45
-37 58
4 -13
20 -12
3 -23
22 -27
-17 -7
-13 -4
-75 74
5 -12
61 -61
-48 55
59 -70
12 -36
-25 11
27 -9
-1 -15
-49 30
13 -9
30 -32
28 -36
26 6
-48 55
-4 2
-21 22
31 -34
-40 29
27 -6
-62 76
83 -64
6 -25
3 -8
27 4
-58 72
-3 -14
38 -27
-5 29
-16 34
11 6
-49 64
32 -11
-22 16
10 -30
-23 3
-17 8
-35 47
-20 32
21 -14
72 -77
-39 37
-104 90
25 3
8 -7
-35 43
-33 25
41 -44
-37 29
-62 35
-10 2
45 -39
38 -46
-6 -14
22 -33
-5 5
-37 38
-33 0
-3 0
10 11
37 -5
-3 24
43 -40
-20 19
-17 1
19 -4
6 -30
-13 -7
49 -44
-15 12
-15 2
44 -23
-2 8
-3 1
-10 19
-17 19
-29 22
26 -21
-39 22
15 -12
-12 14
35 -46
18 2
16 6
-5 4
32 -23
34 -12
1 -25
6 -25
-8 14
23 -28
-12 15
-22 25
-3 -7
47 -21
-35 26
20 -32
24 -29
14 -26
11 -10
23 -14
22 1
-70 78
26 -31
36 -42
7 -11
-23 47
12 -43
21 -37
-16 21
-55 64
17 -2
-11 -2
-23 42
-18 16
41 -32
54 -56
31 2
18 -27
39 -36
3 11
-40 12
8 8
26 -19
10 -8
35 -25
45 -45
15 6
-37 26
16 -22
36 -63
-9 -10
55 -90
62 -66
-15 1
49 -40
31 -30
27 -20
60 -52
29 -43
58 -40
33 -27
-22 20
61 -76
18 -5
6 -23
73 -50
22 -20
-14 6
62 -66
31 -13
5 -10
5 -9
-16 35
15 -23
2 27
-52 36
40 -42
-2 18
-5 21
72 -65
39 -28
54 -34
-6 9
25 8
66 -66
-32 40
15 2
80 -65
-55 29
-39 5
-10 -26
21 -37
4 13
-40 20
57 -67
16 13
-2 12
-15 3
77 -69
17 -4
-16 29
8 -6
-16 2
-19 8
-73 87
-27 9
-23 2
-1 9
38 -31
14 -2
-22 34
-49 59
8 21
17 -26
-20 24
13 -11
-9 11
-96 71
8 -4
-21 47
12 0
-23 48
25 -23
-45 36
-19 12
-11 -4
17 10
-66 59
-7 -10
5 -5
16 -27
-60 60
-6 10
-6 7
-1 11
-24 -6
-48 38
-2 26
-28 27
-73 56
-6 -2
-16 13
-64 73
-1 15
-10 15
-26 17
-19 18
4 7
-17 12
-87 72
-17 24
7 -7
-49 15
-58 72
-8 -8
-30 44
-44 36
-77 49
16 -17
-22 23
-58 49
-69 80
9 -10
-30 16
2 3
-56 40
-38 7
-37 45
-51 62
-1 2
-7 16
-24 23
-42 27
-17 17
-52 48
-78 78
-9 1
-18 6
-20 18
-19 6
2 -13
-63 60
-1 -9
-53 35
-81 64
-33 47
-32 2
-22 47
-25 23
-45 42
23 -11
-76 65
-15 -6
-1 5
-3 12
-77 51
-32 28
-20 11
-22 29
-2 25
-51 52
-67 68
-34 41
-33 60
-32 36
-40 26
-89 89
-14 23
-39 35
-56 54
-7 17
-49 50
-15 2
-46 76
6 8
-15 21
-40 24
-73 78
12 10
-20 21
-15 31
-64 68
-13 16
-38 36
-68 75
-39 51
-18 29
19 -11
-13 -17
-10 22
-3 -16
-27 31
-79 108
-9 30
-33 28
20 -7
-35 39
26 -14
-15 22
-26 20
15 -26
46 -25
-16 18
15 1
16 -27
-101 106
24 -31
-72 47
-50 48
-8 8
1 -22
-21 14
-12 5
-16 17
8 -5
-70 84
-10 -6
6 6
62 -60
-111 97
6 -2
-26 22
-30 20
-6 32
-50 43
-37 61
-34 17
-34 50
-73 66
13 -18
-77 99
1 3
-35 11
6 10
27 -9
-23 26
-43 19
-70 79
-27 -5
17 -24
-10 20
-54 71
-12 22
5 -30
-38 37
-52 62
14 -16
-49 48
-42 33
-82 82
13 -6
12 19
-7 9
-43 38
46 -20
-44 39
-60 64
13 2
8 6
26 -31
13 -33
-7 1
-30 2
-21 35
36 -43
28 -53
-39 56
-8 -12
23 6
-34 36
-27 -7
-14 43
-41 14
-2 26
18 -33
-20 5
-1 -3
-28 35
-30 44
-60 76
15 4
-47 49
19 -37
-33 38
9 9
-13 0
14 -1
-8 10
-22 -4
-11 10
2 -12
4 9
-56 29
-8 27
-30 31
-21 19
-42 66
-21 6
15 2
-2 -6
-36 67
-58 63
7 5
12 8
-59 32
-7 2
16 -2
-12 8
-44 50
-15 33
18 -30
-60 60
-46 39
-61 50
11 0